{
    "biases": {
        "1": [
            -0.82125714777954606,
            2.0998199235260411,
            2.2125412915132152,
            -0.49049774888313374,
            -0.60903738146285069,
            0.46653752774889673,
            -2.2700857159385759,
            4.3637622032879317,
            2.0105657796525453,
            3.0274210941141844,
            0.94466487630824869,
            1.0123330585374488,
            3.3588032074243821,
            -1.1873480246685713,
            -0.58229383228373544,
            -2.6672358378887688,
            -0.46310475828874997,
            -4.6062747039397163,
            -0.30779556225881544,
            -0.90951012631466233,
            0.24942150021600248,
            -0.54548052440081407,
            -1.6145032594237967,
            -1.2674596524216726,
            -0.11715244976676462,
            -1.681529253202906,
            -3.8584315133632012,
            -1.4408348639986313,
            -0.33808865766198715,
            -0.19448774688278631
        ],
        "2": [
            -3.5045418091540053,
            -3.5887708171400541,
            -1.978476976532064,
            -1.834039676190639,
            -7.0644982274151733,
            -2.221396769543337,
            -2.8487763383450853,
            -3.0771657474682121,
            -6.6503371334834185,
            -9.5826722826848769
        ]
    },
    "layers": [
        784,
        30,
        10
    ],
    "weights": {
        "1": {
            "0": [
                -0.77431671833567073,
                0.76857763665022572,
                -0.81570567484809708,
                -1.7734780022509338,
                0.41880107039477193,
                0.56242420717200514,
                0.59459455252200977,
                0.43406063513602589,
                -0.88811750484278706,
                -1.0064205177860965,
                2.9376058745584714,
                -0.00040844099621973088,
                -0.8052036684275915,
                1.3634081491120973,
                0.48961288973003092,
                1.1574247812084963,
                1.1977295726487092,
                -0.53101790600620247,
                -0.52175717683503731,
                0.52525164101440314,
                -1.3229374995669303,
                0.68104036699462478,
                -0.99459744375722758,
                -0.26310870546284482,
                -0.41138787218915834,
                -0.08149632524971781,
                1.6438115618097402,
                0.39570070386588019,
                -0.56541780245574358,
                -0.067542751915741633,
                -0.75719876692151467,
                -0.46955995502582654,
                -0.78810070433742252,
                -0.16995951088881631,
                0.2998393014045253,
                -1.8630274311847492,
                1.9375743302520172,
                0.40833038321692361,
                1.03224655742215,
                0.65861281481136069,
                0.31985685284724924,
                -1.3518871885204138,
                -1.3662621575089289,
                -0.13827156879813701,
                -0.15271996244554881,
                0.67942097849738414,
                0.051138653256354416,
                0.68933695155379215,
                1.2358155088604446,
                0.99668114959858223,
                0.072001123317140439,
                -0.695998381843557,
                -1.1885565596532908,
                -0.028886247807220638,
                -1.0847356619727333,
                -2.313370564113574,
                0.66270063597264051,
                0.98800880380442457,
                0.84634592001812137,
                1.2767318073375058,
                0.36375955051350373,
                -1.5753242529419742,
                -0.59398826031102014,
                0.2830110195275154,
                0.012178181041255983,
                -0.046271216236784984,
                -1.1960870643537844,
                0.0769581237009207,
                -1.360666695329001,
                -1.7767277357486511,
                0.061960726353549052,
                -0.74400303918039423,
                -1.6734472706679053,
                1.1726231364831512,
                -1.0212933886760573,
                0.19668861766774173,
                0.86699468346744923,
                0.3403046809419924,
                -0.31253391983959938,
                0.92684234604366056,
                -0.34908539916251174,
                -0.63814498913989215,
                -1.2074947333393207,
                0.60330187673876023,
                1.0173029415814394,
                0.71124721589320228,
                0.037380947331754108,
                0.81218152679047773,
                -0.56344385681210551,
                1.4911063800958655,
                -1.5097866490226413,
                0.42395632487171969,
                0.45149315356447595,
                1.3877505132342238,
                2.2816217101459837,
                -0.31259459269679207,
                1.1767278340690386,
                1.1508469113992459,
                -2.4123074770649078,
                -0.072720112505478676,
                0.43855078987873453,
                -1.5274879862507851,
                -0.046895424087859822,
                -1.0847475574460468,
                0.31133454677504674,
                -0.55054072017272337,
                0.007039295614286894,
                0.28707912236992988,
                -0.48773074777826458,
                0.40795079825324854,
                0.34722525287245909,
                0.26344801001536206,
                1.6490962365494479,
                -2.339931221377733,
                -1.9198685341285722,
                -1.4671050297869963,
                -0.35398900019542334,
                -0.17054628545440947,
                0.35280001828681751,
                -1.2883654612390327,
                0.068726000046625546,
                -1.2491642112772015,
                -1.4062969437905681,
                1.1043242009121736,
                -0.84504081798263964,
                -1.0520195476115219,
                -0.25950269484556621,
                -1.2534757562900622,
                -1.4296839085226356,
                -1.4911873614307685,
                -0.89341921318252648,
                0.21266399067894395,
                -0.08186349554652729,
                -1.9127928096204188,
                -1.1864914189609339,
                1.3532716152542024,
                0.32152414403157425,
                0.066887094789733051,
                0.020328646885846985,
                0.59148068355715122,
                0.24571646222105639,
                0.32005728355801416,
                -0.9756324206619259,
                0.54908279420635064,
                1.2692075470716389,
                0.25064969518336161,
                0.89445747080042382,
                0.029644922668605297,
                0.78365456955708179,
                -2.2734585104115435,
                -0.48548362186756477,
                -0.42310919264215974,
                -0.11371910931995455,
                -0.59656396214946661,
                0.36303152525496557,
                0.51686317594904374,
                0.4554837547558479,
                -0.3047200188028435,
                -1.1624357588445753,
                -2.1613940545547687,
                -0.53925014066863119,
                -0.27512634731865099,
                -0.74750264322054238,
                -0.24306039875607802,
                -1.2488738792282366,
                -0.19486458202746743,
                -1.4410588597803498,
                1.9817676291578723,
                0.44901695582593754,
                -0.53132258035320856,
                0.72605552977223142,
                0.70120004049373674,
                -1.4865569312769444,
                -0.5504137224154958,
                -0.36450305775461506,
                0.14809911475956167,
                1.8993206749984022,
                -0.39489226742949318,
                0.26684921861087929,
                0.010973861369584116,
                1.1954240911834113,
                -0.84017434329313101,
                -1.1571377193182679,
                -1.6678077979914419,
                -1.5680194652824826,
                1.0364438882705336,
                -0.39065380716709552,
                -1.0552733836906851,
                -0.98826056430584042,
                -0.22707817432901006,
                -1.134494749338254,
                -1.5570379664783358,
                0.23983412803183013,
                0.3442744858401442,
                1.3743619896680566,
                0.70009644388047776,
                -0.32670604706444728,
                -0.044176086958892455,
                -1.8918866673365218,
                0.99546959350498765,
                0.21578077263443218,
                -0.15371071436253261,
                0.92702515927125628,
                2.462408518834045,
                -0.22424134775556814,
                0.54825427507025648,
                0.30404234710961842,
                -0.79259512964862222,
                0.65741954705604533,
                1.1396200202340507,
                -0.82721771207850736,
                -3.3058695441073778,
                -1.7218205135451985,
                1.1021781239629973,
                -0.34388300543979367,
                1.1891744066254377,
                0.57710224926172593,
                -1.3018044624403584,
                0.0094037064866580675,
                -0.13931943753248155,
                1.3340410341204771,
                -1.1407936988913561,
                1.4124721801033115,
                -1.6312979372966308,
                -0.89006489129206579,
                0.017541562469184504,
                0.0881694130101323,
                1.6834563706992196,
                -0.48824524940965941,
                0.72267081482271145,
                0.69314001894021249,
                2.3908288603012515,
                3.8455945938436562,
                0.94876798034984311,
                1.4609115827576646,
                1.3373357590670207,
                -1.2929987536574556,
                0.12399756799331518,
                -0.65922247968912007,
                0.86235790872605256,
                -1.6849797031143621,
                -0.03763073953270752,
                0.6397683267116332,
                -0.49364162381780458,
                0.75645710656440279,
                -0.25025642113112678,
                1.0710197810339996,
                0.20146851391066095,
                1.2359174948084628,
                -0.38683075548691614,
                -0.15292119803509235,
                -0.84789696248159685,
                -0.21449797724267497,
                -0.60792957755225585,
                0.66402119156910433,
                -0.73283410975279173,
                2.118681591388246,
                0.95859674576714926,
                -1.6504903214151683,
                0.92666091051431532,
                0.28067978511829506,
                1.8788868141376205,
                1.7213379983166839,
                0.46670502710535167,
                1.922588639755491,
                0.086502928952763125,
                1.2227604276226267,
                0.27150333124211434,
                0.44342971667032149,
                0.95421436401031146,
                -0.20370314719258981,
                0.54392342912633362,
                1.6899275757756858,
                0.46257684785911624,
                2.129983416038971,
                2.6623728812705743,
                -1.7613269434212213,
                -0.31756370874242196,
                1.7673920612252287,
                1.1041223820030628,
                0.22530852844537011,
                0.81006978618750991,
                1.3109226788914656,
                0.53886894493915705,
                0.88426192425106376,
                0.0671234014243417,
                0.35766742387034395,
                0.15671467596722757,
                -1.3439240780803348,
                0.43375023242827604,
                2.2308341258073781,
                1.571774143531298,
                2.3504928313950888,
                2.7613907051066793,
                0.46709973936909566,
                0.022448730995107104,
                1.5125914001083642,
                2.3048598206103939,
                1.2483504517200386,
                1.2415634361300141,
                0.99822907273336925,
                1.0000883164116892,
                0.71395805765479803,
                0.10024588566123807,
                0.25835910605037288,
                0.20190039324882952,
                0.40832465157310405,
                0.12236098539338661,
                0.87217571538658401,
                -1.8282189458499636,
                -0.99165988913555958,
                0.92933946669298628,
                1.2440067263743571,
                1.4467677925631448,
                0.60257632000322514,
                1.2681464147265342,
                0.65896051859542892,
                1.9426264462389755,
                0.68329551883669171,
                1.7663410771177306,
                -0.96753111747446685,
                -1.0792586536206878,
                -3.2266125028185293,
                -1.5368711111325168,
                0.72678065156973193,
                0.51877115356645842,
                -0.36546843145884217,
                0.65856013340206665,
                2.7899060696256246,
                1.3516316748976331,
                -1.3560881927287995,
                -1.6399071405913317,
                -0.73158722643962415,
                1.1459327248460027,
                -0.45268570190053103,
                -1.7280084229131456,
                0.14422665260583897,
                -0.31608899482826985,
                0.85224117198591653,
                -0.94221690557607529,
                -0.14100933367718185,
                1.7986206972418854,
                -1.1311609677174237,
                1.4950233973304679,
                -0.034047225639102487,
                -0.098559585746603715,
                -0.55869098932919647,
                2.2843725296371691,
                -1.8007941907577587,
                -4.832457923063008,
                -4.8219661735463291,
                -1.1981572789873784,
                1.5847843087973237,
                -1.2220538366149261,
                0.48065183250306415,
                -1.701532297221017,
                -0.63309242472048111,
                0.44240021162165089,
                1.0706308237506277,
                -1.9833808132623263,
                -0.35601362677041565,
                -0.26640606887931806,
                -0.098645518614559821,
                -1.9210187580627356,
                1.9213926597214255,
                -0.24390221222946004,
                1.542893768219048,
                0.047260408381219664,
                -1.2833882302110238,
                -1.0388793834165573,
                0.52900873997265041,
                -1.2511876672783968,
                -1.9491986369212513,
                -0.57410354698232213,
                0.85435870686714122,
                -0.73310796482297025,
                -3.7435827441453089,
                -5.554790851209888,
                -2.7730367748767715,
                -0.53501046481708103,
                -1.1734290846022652,
                0.54401267817658239,
                -2.3790300950110059,
                -3.1952703205188784,
                -4.1694741930784112,
                -2.1846807965734012,
                -0.69233453627700847,
                -0.9165314803773017,
                0.01428634515185831,
                0.17365768198028844,
                0.73628601529093285,
                0.68378696695340335,
                1.3500955086484412,
                -0.16320831832408073,
                1.9752043999235969,
                0.90787723201851012,
                -0.35833578825609486,
                -0.77617950257395041,
                -0.50266887132311755,
                0.062483587280057568,
                1.6179748832687391,
                -1.3962732832284466,
                1.2561782298967736,
                -1.3664916924630224,
                -6.2529618895333812,
                -5.8839850913670197,
                -2.5661279410543263,
                -2.950560006578796,
                0.17786964496356023,
                -1.9204647779502979,
                -1.4111709622299768,
                -0.48813511728676268,
                -0.023996077922667763,
                0.82647365213074619,
                1.2187256799906176,
                -2.1307081174748821,
                -2.0272805683718231,
                0.36776748198901094,
                1.1772410071249468,
                0.30513257287964374,
                0.29790826548839111,
                0.42056554959253356,
                -0.54097008579697115,
                -0.18900281160797711,
                0.80535602713768806,
                -1.0030849781157081,
                -0.59358768679828111,
                -1.3765650085695895,
                -1.1777637855522287,
                -0.7439467421846937,
                -1.6826339482067467,
                -4.140805332338422,
                -3.8288103114006944,
                -3.0682154177054963,
                0.72879262514015175,
                -0.21211826144224527,
                -0.47887054521356626,
                -0.37494279467415403,
                1.9863969333828668,
                0.30330033221438074,
                0.61998404642818228,
                -0.66795468990372886,
                -0.85053930851542181,
                -0.66122335985898073,
                -0.57637595457355173,
                -2.0397275477538575,
                0.76014372056075741,
                0.10539646997930195,
                0.59885820583166194,
                -0.29100515588206299,
                -0.3014837084635521,
                -0.68970874840083451,
                -0.67941734026257805,
                -0.95863802953673638,
                -0.9514739268917265,
                0.14588879699678298,
                -2.4312037611746842,
                -0.52847185954314124,
                -0.30042274202116226,
                -4.638312042804845,
                -4.069214908711273,
                -0.68367223480925765,
                0.65194703707780688,
                -0.81010585553807124,
                -1.1432772810509348,
                0.22980732345350185,
                -0.24703892041614234,
                0.33267622181556139,
                0.14649699631827814,
                -0.41615273472822428,
                -0.35698930326372003,
                0.7131810246110506,
                2.2050196662335715,
                0.60675855425883174,
                0.1798406931799634,
                0.023065608203068452,
                0.8807676590534842,
                -1.0760515040186691,
                -0.18573557901719415,
                -0.78561641395308301,
                0.074227225074667363,
                -1.7744724291274934,
                -0.52455461938401804,
                -0.99952239566426537,
                -1.6542452702412254,
                -1.3425998644883061,
                -4.3125152308908188,
                -1.7955794825716072,
                -1.5365704027281548,
                0.20454768070687498,
                0.70893360691076057,
                0.99272747950314377,
                0.80272490595882262,
                0.58315247763210409,
                1.8462784696154053,
                1.4329441645574126,
                0.38117290105458179,
                -0.20570798354699382,
                1.4833460282747375,
                0.25247141266324519,
                -1.0741774064855303,
                -0.10083840117409837,
                1.8578480288944321,
                -1.7741267367771405,
                -0.77319886879151556,
                1.6922261815007051,
                0.4696045011085539,
                -0.31742835803345276,
                -1.347985928196449,
                -0.84996912484412501,
                -2.6271152410682417,
                -0.98958955438803109,
                -2.2428454791638566,
                -3.4882541139279049,
                -1.4134686448959783,
                0.27289829657661263,
                -0.59045670916762349,
                -0.05551598482929318,
                0.09440896368696948,
                0.080910271915645163,
                -0.36733068647025097,
                0.4191514205910552,
                0.67936986254648812,
                -0.14099865797685121,
                0.16555951690094883,
                -1.7046904693382003,
                -0.70724089940927959,
                -0.010552913677061609,
                0.47084318221029459,
                0.5364230695262614,
                -2.152014092064769,
                1.0910235799275756,
                1.7275390324154931,
                -0.63696024841697441,
                0.49410441156147245,
                0.034903354051751656,
                -1.1134574862298305,
                0.74569928223461313,
                -1.076137715291746,
                -3.2342049928760033,
                -2.2843355452034881,
                -2.3235033564499097,
                -1.0121241823381155,
                -0.11733888866780146,
                0.38767888609619572,
                -0.51175295766743256,
                2.445134528480255,
                -0.90228500057521577,
                -1.5265483467918359,
                -1.6023486754266072,
                -2.4871709093360308,
                -0.97971057457802935,
                -1.5569246592819861,
                -0.40235047765929716,
                -1.2312486159734315,
                -1.0217646989842808,
                -1.5483075407833573,
                0.45914511695115512,
                -0.48009755359179912,
                -0.70495494074103815,
                0.44236840429198693,
                -0.40227565868066822,
                0.028041914867795597,
                1.2384135830690512,
                -1.1236739819546639,
                -1.8992582511473044,
                -3.56101190006859,
                -1.3154073991727426,
                -0.6835244267010937,
                0.89702569454181025,
                0.026592231445339773,
                0.22797364915440982,
                0.38787056678299037,
                1.212514900093433,
                1.9094399224549004,
                1.1953585104932798,
                -0.12440268804249277,
                -1.5909692610061592,
                -1.3983535997143657,
                -0.87350573171589752,
                -0.21486068110143658,
                -0.18764388706716359,
                -0.64594841701237171,
                -1.4474992285053987,
                -2.0475665364610602,
                1.6005664415398611,
                -1.5928073579542592,
                0.40469878355704192,
                1.9361218768479944,
                0.074983507961791082,
                -1.4529045072135995,
                -0.22285748487500751,
                -1.8575164016868031,
                -0.21033705998964272,
                -1.6082857057230096,
                -2.0682497192053266,
                1.3508220452917319,
                -0.91236872803239499,
                0.64425353134617724,
                2.058433193442831,
                0.57467513033746498,
                -0.26585304851575614,
                -1.0405943543613752,
                1.2438005933431362,
                -0.42925945643802732,
                2.2262009398449045,
                0.78723028123579009,
                -0.14098186842742516,
                -2.0150302700651692,
                -1.5448357892912921,
                -0.43679996618033767,
                -2.671292812860266,
                -1.3141826004586579,
                -0.26901962641268146,
                0.57768287685625042,
                -0.080154103661588136,
                1.0363788732802808,
                -0.22731868901495311,
                0.66885555412293374,
                -1.0071302459406,
                -0.80723633881578494,
                0.45227587944030473,
                1.8858234058817653,
                -0.16837836618245305,
                -0.12680837725728969,
                0.5784547551107394,
                1.1920795931087398,
                -1.0061798265356299,
                1.1356594314390966,
                -1.0512788754330193,
                0.90829262969141267,
                2.2843900709214098,
                0.32367466590591915,
                0.42290807969639727,
                -0.11877098185436458,
                1.0468126533261921,
                -0.32022901454158631,
                -0.27267090809074435,
                -1.5344564145206698,
                0.38717061634569533,
                -1.0730052630799485,
                -1.4453735650848352,
                -1.3825981864459236,
                0.63999103827222192,
                0.26326840143346347,
                0.77536685191059485,
                0.23178782790834929,
                -0.2297154973326748,
                -0.09926905761697126,
                -0.89430782138810627,
                2.3834729143741984,
                0.42630929841524484,
                -1.4716352922867453,
                -0.4605831700197443,
                0.28865952607431156,
                -1.2624491593754521,
                -0.64373682787596176,
                -0.23421580567868705,
                0.081931062730937324,
                0.1555552663702916,
                0.57613310043382171,
                0.16544791605955902,
                -0.34743373187029247,
                0.040361243927929884,
                0.43495215530481718,
                0.77720297590120835,
                -0.74584570514202686,
                0.13807200874334999,
                -0.07001885544810571,
                2.1600619294533638,
                1.9950224431835735,
                -0.21629907057885622,
                0.10880554396940158,
                0.10573671451900979,
                -0.11428803658933413,
                0.59010006588898833,
                1.5397181668580935,
                0.16155457223304989,
                1.2612407062088586,
                2.6191413163701243,
                -0.78717636380407818,
                0.26347066106152195,
                1.0465334980671073,
                -0.88147488159989296,
                -0.71601042756193223,
                -1.3339109854159765,
                0.11567805216470768,
                0.071347123923366951,
                -0.17772887902597889,
                0.65121473375629801,
                0.50729906706239314,
                -1.3396261067293527,
                -0.25797531278504987,
                -0.086064589597225336,
                -1.5061569170579807,
                -1.116349432718335,
                -1.2514072312284332,
                -1.6316659614972511,
                0.28668426711648098,
                0.82519801397351278,
                0.44083591122218835,
                0.70957569587954894,
                -0.95239268742058669,
                0.010477317345298604,
                0.71773830871318722,
                -0.091309438996901263,
                1.3496455939085585,
                0.4437989274170373,
                -0.022232878396244129,
                -1.2013898758630388,
                0.48873266862509113,
                1.0552824506664027,
                1.7072364260587793,
                0.031478880599525062,
                0.87178503812686514,
                -0.56673285446245836,
                0.15437810009919462,
                -0.099597478110256155,
                1.7337431037411808,
                0.59886299111199182,
                -0.90067009812201582,
                0.45824579695540407,
                0.13074934665464977,
                1.2736531388280665,
                -0.79685888396781235,
                0.28927334180291259,
                0.51686643583687297,
                -0.20413840939228783,
                -1.4292387395328465,
                0.7272191258778079,
                1.9578202445703967,
                -0.10977095374043569,
                -0.41783129030447946,
                -1.5079067048423063,
                0.66862372958782013,
                -0.31899404262641867,
                -1.1306593979604811,
                0.78522844114095292,
                0.69728822743636631,
                0.72305599903088291,
                -0.62736774346089663,
                -0.63068707285285963,
                -0.88924806954307778,
                1.8702222944277136,
                -0.92672954120280771,
                0.0050238481279885139,
                -0.60815942601580042,
                0.097714464179591218,
                -1.8826839113973763,
                -1.3341426150510272,
                -0.77939290121580396,
                0.27173152798043165,
                0.094279049718774502,
                -1.366666064806628,
                -0.67521696599885628,
                1.2383923233713749,
                -0.08527454251162471,
                0.91917064895861156,
                -1.3298335699008674,
                -0.37656909428554186,
                -1.4635250510518125,
                -0.04113336613165533,
                0.30948633430320843,
                0.21059926341786875,
                -2.1159778635193782,
                -2.0943941385792875,
                -0.25090038035079781,
                1.2683966218553626,
                -0.20245595496872926,
                0.97486180303356662,
                -0.87579126631133086,
                -0.3073872586845065,
                -0.44717020990012057,
                0.31755538254080201,
                0.39872703570210566,
                -0.019000537334357661,
                0.061621095270630984,
                1.3430861760269159,
                0.079287893705164744,
                -0.22676671698193321,
                -1.0648704056136575,
                -1.945699510932964,
                0.48066143491833491,
                1.551348165572211
            ],
            "1": [
                0.13921680101559514,
                0.092778358783226503,
                -2.1532278056693999,
                1.4316109607638987,
                1.6341879009977809,
                -0.27188535766202004,
                -0.57175301180249039,
                -1.0468446432814282,
                -0.3405474461082047,
                -1.0749503986978142,
                -0.82755047060108233,
                1.7686533673388196,
                -0.64943486916701687,
                0.20590723171521272,
                -1.060332846882502,
                -1.0646497805971056,
                0.24020082360556885,
                -0.98408607738878895,
                -1.0154596758492704,
                0.64953148203547695,
                0.53381532482367899,
                -0.33342076446703328,
                -0.93879455888654861,
                -2.506283117174807,
                -0.13288503928913886,
                -0.40661399642040746,
                -2.12862380590505,
                -2.2957202865595354,
                0.6168844991206176,
                1.6555388832416005,
                0.27643376634896555,
                0.90550371102254412,
                -0.16712122984898811,
                -0.26543007838078458,
                0.45448253390247012,
                -0.97364618589404806,
                -1.3216243074747975,
                -0.22739002169821168,
                -0.69701963580246362,
                0.34494859253222337,
                -0.24345324932655479,
                -0.45740759262502501,
                0.61317876486371092,
                -0.5706972888378693,
                -2.1984752697737791,
                0.94063057238015524,
                -0.083886085494374915,
                1.477941049729856,
                2.3564933210497454,
                1.5607759715392664,
                -1.868618964448955,
                -0.019544470553440076,
                0.05286099904385895,
                -0.14068106519820239,
                0.99573826790580633,
                2.1790980261545361,
                -1.256748888075591,
                0.24100639443623026,
                -1.2755335533991414,
                1.0487448428785957,
                -0.7566999619216741,
                -0.51129710770583847,
                0.068846941275405332,
                0.1896504879677294,
                1.5761364112423928,
                0.70426552855414515,
                0.11723109335145734,
                0.64376528603941263,
                0.057044807325654777,
                0.55896031376925992,
                -0.36770396467815719,
                0.20590759076247894,
                0.24021858922395989,
                0.40077320566535007,
                -1.2862638393765313,
                0.41780697071272294,
                0.70455227796319819,
                -1.3633067332881301,
                1.2518449694282086,
                1.8057285031320611,
                2.2672743661960495,
                0.67066607569689385,
                -0.47987941485160424,
                -1.1707290983877885,
                0.8021847423413041,
                0.13383898653491699,
                -1.4094374746953642,
                -0.29103546160902394,
                -1.9904885597721613,
                1.218504691804511,
                -0.71428904414475425,
                -0.71860230769379163,
                -1.0830060478713759,
                -0.45098354409826957,
                -0.97977131114160443,
                -0.9752359687377421,
                1.0777819688360268,
                -1.0451559113955964,
                0.67171990443252683,
                -1.776230449515757,
                1.1817730358666376,
                0.63081231589341424,
                0.13513702163800356,
                -0.19158503201218249,
                -1.4898220027563709,
                -0.71200021835594685,
                0.62412755857753299,
                -1.6926300180559477,
                -0.14735545611354858,
                2.1591703118454753,
                0.78386102921568013,
                0.51449914369962813,
                -0.6089677662460824,
                -0.78706558498890344,
                0.51061685392007428,
                0.56517741348357331,
                0.26104525554102115,
                0.49086181462454237,
                0.21244397886265715,
                0.88580498938514729,
                -0.11148185968979052,
                1.3160150737366181,
                -0.76209816750208559,
                -0.62060043533150044,
                0.92671223063522912,
                -0.7476969996552334,
                -0.8997540036912951,
                -1.9628172168307982,
                -0.39458332494720677,
                -1.7707319472738716,
                -1.286392508776306,
                -0.35114246533721583,
                -1.0092190642455496,
                0.4003000464345175,
                0.098480390156375552,
                -2.1266699881251676,
                -1.051869125928222,
                1.1132891919927379,
                0.5614652066483441,
                -0.85743902878029421,
                -0.32894480966854039,
                0.22449479819301835,
                0.48041524219969239,
                0.1759862249551534,
                1.9507204183498354,
                0.8972959395507859,
                1.8079450110702719,
                -0.57870337100290314,
                -1.6131800963740082,
                0.056578581150123555,
                0.87424074786534611,
                1.85409573252868,
                -0.3922171805675152,
                0.59701115751936551,
                0.14976175973380079,
                -0.48476369281209342,
                0.73710624708829275,
                -0.43315716617496802,
                -1.100443996232878,
                0.95871763911058827,
                0.29674179569832998,
                -0.20434077240007897,
                -0.82365076324688136,
                1.1212374911741825,
                -0.80870723023699886,
                0.5862547839320984,
                2.2465326400775005,
                0.99091483305894468,
                1.1085724343102399,
                -0.15850210016549915,
                0.29536218801022102,
                0.47670911595069998,
                0.80288407249299509,
                -0.2853807401775148,
                0.27359429380290878,
                0.11403635930992262,
                -1.0681661682989869,
                -2.204628919176312,
                -1.0630722761323608,
                0.17296192949171132,
                -0.02906400957166198,
                0.91195926504771652,
                0.78354324677048404,
                0.24769285141342814,
                -0.098800340857728833,
                -0.46035336645358071,
                0.55544688830910194,
                0.59706632034692086,
                -0.96408415365510503,
                1.8940979733320848,
                1.8156003244341468,
                0.63028757998604579,
                -1.5468122140997396,
                -1.2865566798439747,
                -1.4103909506461136,
                -0.11697358761846369,
                -0.2899889295073691,
                0.52247133261271583,
                1.9075608590189364,
                -1.2388439522619576,
                1.722507194946878,
                -0.098943926879063879,
                0.57927353382112079,
                -2.2214068366829354,
                1.8155828418690865,
                0.32266590742280704,
                0.6429942069900797,
                1.403082512124415,
                -0.24391754289701587,
                0.75949642019827435,
                0.25108269456746285,
                1.2860558130981976,
                -0.1870779106159178,
                -0.44357565209752797,
                1.3977447256797857,
                -0.59530161373723478,
                0.51332422894759544,
                -0.97006519959175652,
                1.1334449620375067,
                -2.2069353878858569,
                1.4092422372069411,
                -0.54577848624285075,
                2.371884865475685,
                0.21802899741315498,
                0.64625787612328978,
                0.86375995007643225,
                0.60333477992758722,
                2.0469780506497388,
                0.83975569337510469,
                -1.2171698156079886,
                0.93031829999069982,
                -1.317322866386903,
                0.91689101508931792,
                0.80861338670030425,
                2.2122767154370711,
                1.1607143036261225,
                -0.42619661281811066,
                0.55097233879971619,
                0.44040432338966767,
                -2.3654515904385991,
                2.0006522484359031,
                0.13109700570094679,
                -0.35441026080398708,
                -1.888744627256183,
                0.069390890860817095,
                -0.0083964399289033279,
                0.3400528907294566,
                0.19931996099791835,
                -0.69777943227042194,
                -0.39174492548934342,
                -0.98580517296033188,
                0.012044655854860883,
                0.82254687213326338,
                0.076762336798525774,
                0.32045991625770415,
                2.3000667622738469,
                0.97969101286406579,
                -0.3222107890782947,
                -0.66721839224532942,
                -0.60548975913747782,
                -1.4356595972542952,
                -0.10802498657024526,
                0.21093677440644124,
                -0.61435887560832436,
                1.5683281035742138,
                0.46751414340226199,
                1.7498309297244825,
                0.8906613190479914,
                -1.7664841682857806,
                1.6804807655319975,
                0.43178722695457034,
                -1.711259614718641,
                1.0449577344944008,
                -0.25988397873679447,
                -0.39652674244794472,
                -0.82663361252350986,
                1.3363374515693223,
                -1.2993139081377292,
                -0.43712152745775451,
                1.12027151107178,
                1.0148658850001968,
                2.130875834472215,
                0.60230879973498708,
                0.61906197545913544,
                -1.3147948659929447,
                -2.0757886996120778,
                -0.023438321482140635,
                -0.53692424196559729,
                -0.33421733964345068,
                0.050252920132854761,
                0.9120058654197335,
                1.9059340458215142,
                -0.9357882745800431,
                1.6069369265762976,
                -0.48557723697341548,
                2.2552213315621565,
                0.55849460570587672,
                1.038021526238663,
                -0.22653956382108645,
                1.0044697348731131,
                -0.095245004630239452,
                0.54296824404167043,
                0.72557562570799106,
                -0.85050884071139377,
                0.69826694121844091,
                -0.62641106902001742,
                -0.18570415282035652,
                -0.77459989621437098,
                -1.9547126433353617,
                -0.66869025962248174,
                0.66494730134414626,
                0.46197750758741774,
                0.40138406294267487,
                1.5692179191623814,
                0.97489216239843601,
                -0.69779480565206009,
                1.0480331992443468,
                0.84460898796399497,
                0.38239302522285534,
                -1.2578706272536668,
                0.97033811303401896,
                0.43341992870813756,
                0.91273231252591847,
                1.3330893632498537,
                -0.54724004168452667,
                0.4091047797663655,
                -0.3836670490653199,
                -0.84897506512983067,
                0.42182030897074474,
                0.23912132849015935,
                -2.9196093415924649,
                2.8821393759329217,
                -0.276108969566844,
                0.97098384018424644,
                -0.23249152022935171,
                0.4377834135481723,
                -0.069039793465089594,
                -1.5252430108798001,
                1.4115444030131745,
                0.084900300944276197,
                -1.712993038263513,
                0.16076606512969563,
                0.34897716136702234,
                0.46451190589153124,
                -0.41120350978185527,
                0.19406053801209525,
                1.5975242874790885,
                -0.33258012458785063,
                -0.26646032507760398,
                -0.92857113019413329,
                0.50941862930182491,
                -0.86808780782911055,
                2.0647114649405491,
                -0.48802600586440481,
                0.55604401298233874,
                -0.45343300035303691,
                1.3161215624440743,
                0.69413104005766646,
                -0.53044917660989033,
                1.1562511032948317,
                -0.39590151218789138,
                -0.11935176604756353,
                -1.3296050774782775,
                0.15472398449554214,
                0.041368507195282511,
                1.6059295903668671,
                0.41113802520034703,
                1.4589857924734884,
                0.73701557936791429,
                -1.0277798870749368,
                1.2717451124338861,
                -0.88710043536694072,
                -0.3897145454683163,
                -1.4506837920105857,
                -1.198845551815563,
                1.0589310437747135,
                0.79258588588062384,
                0.73798768627347067,
                1.7464713905902782,
                -1.7140329222843651,
                1.183631552480759,
                0.89102342502664655,
                -0.48206514179868315,
                -0.40215193186194098,
                -0.66692558327802431,
                -0.13062129369496805,
                -0.57744599945231112,
                1.1140991022467268,
                -0.87704391529082404,
                0.37934822089026143,
                -1.9095777193528236,
                0.32709186634437254,
                -0.86455930955099081,
                -1.3363530317926946,
                0.32707638918890664,
                -0.7216963764067813,
                -1.6523018855480949,
                0.24170588615215222,
                0.084774956031590576,
                -1.0862670055676678,
                0.17432585250734606,
                0.86563528655162258,
                0.65908825297445006,
                0.21966379056001664,
                -0.0033344951557429839,
                -0.57342858192035517,
                0.59809591844461008,
                0.63574845389089596,
                -0.94614181419821031,
                0.38559983449713392,
                1.1599966363311833,
                -0.18537493594900623,
                0.17833670357228562,
                0.27448856984747716,
                -1.6494050070287631,
                -0.55215068694121716,
                -0.99118371602786315,
                -0.55128742800292674,
                -0.53817972301965611,
                0.72924319796604498,
                -1.0284488120555493,
                0.17578415340945847,
                -0.6208702341057678,
                -0.19372534487097218,
                -0.37361914952724784,
                2.0558862657787857,
                -0.9537726470601362,
                0.89666283231173882,
                0.88503662547415618,
                -2.4010800543495781,
                2.2068463622825925,
                -1.6082163040604405,
                0.70313483309626501,
                -0.15282986572093493,
                1.5813170880850256,
                0.18292648800762987,
                1.5683875832941447,
                -0.20987012027540877,
                0.6011105115523071,
                -0.84401026771653909,
                0.58633194352644968,
                -0.36472558331629884,
                1.8019543526259727,
                -0.50969746865713428,
                0.33616189916955835,
                1.5371451559202924,
                -0.76155186313393475,
                0.64784417398334737,
                0.99994084321665788,
                1.7819977231411401,
                -0.505174314488683,
                -0.41541464305892262,
                -1.4895289472815361,
                0.66950891335406604,
                -1.2344327865889961,
                -0.17890919495768592,
                -0.36968477010841438,
                0.09765129768148996,
                1.0073944262179655,
                -1.4896607034232188,
                1.8124515335363911,
                0.80124549965795566,
                0.40181540377040781,
                1.0911033292685455,
                1.1545365691354512,
                0.41569116249763449,
                1.25102593555217,
                -0.80450333581927769,
                0.31123354227099537,
                -1.0025209714564358,
                1.2305540188403896,
                0.88596208772397445,
                -1.244576348507821,
                -0.83645815962895964,
                1.1401467946758579,
                -0.39148250121207273,
                -0.18759528111902252,
                -0.065321626107286396,
                -0.70282335542724905,
                0.53831870086493394,
                -0.60661742854521239,
                1.5950361060683935,
                0.74337066202288504,
                -2.2074722311413586,
                0.12629666852211527,
                0.11829895726011522,
                -0.77206454098973565,
                -0.70700957200541359,
                0.30909435176683259,
                1.0158473488991386,
                0.48966598359463975,
                -0.13478948295644258,
                -1.1924316218082518,
                0.05546849621597446,
                -0.5667278396983757,
                -1.4874615744734048,
                -0.48403030221373505,
                0.92621372393002366,
                -1.4900735089935868,
                1.5508828316783996,
                -0.7232784954242264,
                0.73878799681960861,
                0.096931140241733313,
                0.127288292842067,
                0.56664361350654791,
                0.09163729672828709,
                -3.2755555479188199,
                -0.42262147318704496,
                -0.37312675778581156,
                0.97073438966889802,
                0.26370422636642898,
                0.095503423201418455,
                0.010103829398668241,
                0.98831187491626649,
                -0.94184277713741471,
                0.63967100500970586,
                -0.17608114382475981,
                1.0638334610599542,
                -0.048043959011215422,
                1.2686935689156573,
                1.2649276749701119,
                -0.75342323845107351,
                0.60400934080087632,
                1.6766902651348807,
                -0.48209027518545178,
                -1.8270764218349285,
                0.79872831851400117,
                -1.0753144885235018,
                1.323027788706431,
                -0.12484437470286075,
                -1.6368065194427885,
                -1.8009373256018588,
                0.43224625148060347,
                -0.7351020329789747,
                -0.36514065010214336,
                0.071675270059525967,
                0.43337126596275738,
                -0.39463487759098614,
                0.14906476897955753,
                0.0062700206646951629,
                -0.62191707180538225,
                0.21305594585819668,
                0.19685336629484393,
                -0.97432768182219898,
                0.10787487240442165,
                -0.6559264822357761,
                0.22128124939133587,
                0.58177145460877056,
                0.62561979309594262,
                2.2353725478114903,
                0.58306186111846847,
                0.60790300460293545,
                -1.7165477736584116,
                1.4842760159216939,
                1.2752377058119475,
                -0.19488338445388767,
                -0.21945244436954359,
                1.2560285137925791,
                0.087136920855687416,
                0.81937291648078503,
                -1.8917076436380149,
                -0.85541889028832374,
                -2.2996538638778574,
                -0.13398005489588211,
                -0.99884015612107813,
                -0.403158747954243,
                0.40825460243063327,
                -0.20944189950382067,
                1.0767431734411759,
                -1.5928920361130905,
                0.54016048331426558,
                -0.16449133128370244,
                0.28021190987930789,
                -0.1051291788112465,
                0.62211549322391346,
                0.53073437856746508,
                -0.58794618803613785,
                0.40397538613918738,
                -0.067868973982654623,
                0.90929182627313632,
                0.79057690076878728,
                -1.6898911130916998,
                -0.46006377535961102,
                0.91098434376028936,
                -0.8321790034628167,
                -0.21163665129823606,
                -1.2063308807155979,
                0.77337711540070708,
                -0.93556868704469154,
                -0.41897796870975273,
                1.1688164068550393,
                0.43130832871219016,
                -0.62992547040621949,
                -1.1438975063275139,
                -1.2632433401350514,
                1.8773271363661528,
                0.75492298118418,
                0.23201755717785971,
                0.059724411784645957,
                0.79636287792937455,
                1.5968847395197814,
                0.48333885968476842,
                0.6299005204022512,
                -0.28298510206041605,
                0.065118911966273729,
                0.76466752841484764,
                -1.0140290033111028,
                1.8509948438767434,
                -0.47009819051466362,
                1.8366999236448314,
                -0.86461927352574752,
                0.40974577729016382,
                -0.3884608564987303,
                -1.5108642497432339,
                -1.0025670350048508,
                0.13900424114024215,
                0.54430698485674367,
                -1.4373787899871957,
                2.0382431313683584,
                -1.0453184304535124,
                -1.16323294662309,
                0.76862946643870533,
                -1.4658604283706362,
                0.78060889159007663,
                0.62574480067538985,
                0.90591521775671136,
                1.1128263471732571,
                0.68737165366284414,
                -0.048132767544293846,
                -0.20027446456918174,
                -0.19285472027673745,
                -0.88135362451416688,
                0.59732171894956509,
                0.301066401455168,
                1.3369428419553031,
                -0.95918616116906286,
                0.81080944539525712,
                0.06921174979756349,
                -0.014380906211414511,
                0.2357914220221731,
                0.59093093161431476,
                -1.1498007451081356,
                -1.4891461652698688,
                1.5970585130852943,
                -0.83614044129699228,
                0.22520666380706447,
                0.99582092279763135,
                -0.29535022656947529,
                -0.74441369690147075,
                0.32740589666378472,
                -1.0456571953649272,
                -0.80334435509714741,
                0.92157435520518605,
                -0.82409871703243309,
                0.37253606139070589,
                -0.24675112623575177,
                0.40912846671592995,
                -0.68183624891080796,
                -0.30304875928888853,
                0.097652007905943777,
                -0.94495894397441471,
                0.37553220848802182,
                -0.19221210941663477,
                0.33632170820956109,
                -1.0431147290832303,
                0.24106155687840822,
                -0.61467235246117158,
                -0.85780748095116433,
                -0.86284010441707326,
                0.29736161256182303,
                0.058379071666017572,
                -0.19739591847764287,
                -1.2910594715484836,
                -0.2965169058799198,
                0.051487306818402044,
                -0.019372955685178498,
                1.4058019779019391,
                -0.99642119692245512,
                0.34139615864303041,
                0.5007932406506016,
                -0.20401380337455599,
                0.18300910300652093,
                0.54792316476858982,
                0.56990101620147771,
                -0.35562261574794424,
                0.1782738027047584,
                0.060458821403508195,
                0.15263991308611452,
                1.0760654027480014,
                0.90167260266840654,
                -0.61047996969779639,
                0.70364744917039435,
                1.1675697365412909,
                -0.10973298157467502,
                -1.5784659129619445,
                0.53119151502902184,
                -1.0599474498452162,
                -0.88596372860916461,
                -1.1386617053263131,
                0.4548532024964978,
                -2.378586303472574,
                0.15623792005121367,
                -1.4956903595523174,
                0.75054749143616528,
                -0.19848640299282375,
                0.73862648886825089,
                -0.25877756089893839,
                1.4066288850074264,
                -0.40268859317379851,
                -0.72163504085201957,
                -0.30120839555311146,
                -1.3031160942620783,
                0.49174091016107668,
                0.73033777487991025,
                0.63816442135836815,
                0.12992496787715926,
                -0.68071528228599631,
                -1.4317301648046092,
                -0.89609939715527731,
                -1.2015500450566967,
                -0.34518098336297798,
                0.51253220809139499,
                -0.64079698056582346,
                0.71246777818480089,
                -0.047475078098673185,
                2.0002372324781841,
                -0.071500492356173992,
                -1.0846925487235619,
                0.16092027398488451,
                0.2209691956790818,
                -2.4185673891611916,
                1.0124687920111559,
                0.68232787873328904,
                0.29788671954770835,
                -0.96483820668920151,
                -0.80654474349374794,
                -0.57652270816886908,
                2.3023942155341408,
                -0.16220787508239612,
                -1.3278457401814612,
                -0.13246241225487751,
                0.2089334909846417,
                -0.92362643588264981,
                -1.3435336357293421,
                -0.3826343501218144,
                -1.0244474723499362,
                -0.20305413282937337,
                -0.71872926802370096,
                -0.49389703272304447,
                0.73009911476564715,
                0.43915013850533752,
                -0.32013870065553368,
                0.061059871536510359,
                -0.46114985257924024,
                0.30410732391838524,
                0.37299366306121001,
                -0.62191000932555707,
                0.12174591778444428,
                0.49303681433234869,
                1.9415800181084246,
                0.66546216974873662,
                -0.5119581715295608,
                0.60664864020926534,
                -0.55232194935968981,
                0.77998602280121321,
                0.38179598058368802,
                -1.2231789889644442,
                0.165073607344212,
                0.29361078731068957,
                -0.66287625027801877,
                0.24588313509865625,
                -0.55610447454234446,
                0.63267473831488175,
                -0.48667385118767637,
                0.73007129833473727,
                -0.63551915262044767,
                -0.018836021143688066,
                0.71022199291776478,
                -0.21506759838640468,
                0.73224016226385091,
                -1.6642873130338862,
                0.33225392270768811,
                0.22049846547757243,
                1.2867657857858776
            ],
            "2": [
                0.35813738642662596,
                -0.66542090755168348,
                -0.15100964689606192,
                -2.0953408679877943,
                0.5848207946710442,
                1.1807069199901858,
                0.4022805621851907,
                0.69964168832769247,
                -0.82665258709409084,
                0.75805068792968333,
                -0.69915429475147894,
                1.4018282358940191,
                0.54945613437182672,
                -0.74678720836072088,
                -1.0025375512845438,
                -0.52572870563347773,
                0.46257803606555248,
                -1.6538303777566017,
                1.2128605144614091,
                1.363549727754954,
                -0.45778525094649075,
                1.3540566618808314,
                0.81129119464497623,
                -1.2294908827653215,
                -0.70167452040132505,
                0.85755185707952097,
                0.17135126043210827,
                1.706654062145907,
                -0.42109053261121204,
                -1.4310980497321448,
                -1.2788410839215443,
                -0.30426856930024759,
                -0.063251964618761827,
                1.6479984277313853,
                0.54257395413075571,
                1.0515903936072393,
                0.14625698077733601,
                0.29330529253105059,
                1.5400027694815337,
                -0.16301938516102443,
                -1.2378203961316876,
                -1.4867795248184057,
                -0.55184155647927391,
                0.03447772416317095,
                1.4517102730179923,
                -1.4240746081838185,
                0.68744573233298079,
                0.89126820487872893,
                -1.0792775064225466,
                -1.6262321687780537,
                -1.2899754356892577,
                1.0479136177851127,
                -1.201963250057934,
                1.588468805105322,
                -0.15937188595320789,
                0.74596190459734057,
                -0.095321853589721436,
                1.4146924658349098,
                0.072292747628657367,
                -1.4429031922937516,
                0.34693208653128105,
                0.42255574979606936,
                0.3404297594203734,
                -0.04569796081005266,
                1.9994815904374394,
                1.0325209170379328,
                -1.8275080472974163,
                -0.80386229164625267,
                -0.56925074953307309,
                -0.16557046980475143,
                -0.28214981130837569,
                1.8983373444521208,
                -0.39914700798661978,
                -0.078297218905018867,
                2.2868671552347859,
                1.5389095358130551,
                0.2106389936995075,
                -0.50675423845323486,
                -0.052937168596921977,
                2.0857495254622691,
                -0.034218734992665797,
                1.2100768609093064,
                1.2424404106565539,
                1.7822292263881891,
                0.16169073889295632,
                1.527751442873087,
                0.25146507248284827,
                0.16275969403930371,
                0.47381260394483782,
                1.1606314925176544,
                -0.028713418787036593,
                -1.5659509968377108,
                0.75204625540444536,
                1.6024500983215679,
                -1.0257856459550367,
                -0.022647527038519407,
                -0.97251393298775102,
                0.040398109944649971,
                0.45232273870034323,
                -1.039945175697998,
                1.0042299181201382,
                0.7582238079877921,
                0.21077723352530972,
                1.1259906457424731,
                -1.6233255209853541,
                0.85441168128742084,
                0.23598434076390234,
                1.163931894410271,
                -0.24776154435297393,
                -0.94919240203051136,
                0.42570584492824076,
                -1.8949193697437139,
                0.42512260440937971,
                0.1545941795253058,
                -0.9322209654283049,
                1.2930901303652664,
                -0.74661301145037873,
                1.3922659556766692,
                0.72147130153116157,
                -0.95626573287879357,
                -1.4395839974456894,
                -1.23032658823921,
                0.45386017279895968,
                -0.57881432447836056,
                -0.31402447983667964,
                1.4416217461240013,
                0.156549596569387,
                0.6786544482163096,
                0.86232945840584263,
                -0.28102254424846956,
                1.1666403910873271,
                1.6014179875260928,
                -0.97773517048803238,
                3.7777253280967416,
                0.29241025498377793,
                0.92772313255455274,
                -0.74471348439621432,
                -0.65056483154148759,
                -1.2562192177588476,
                0.29397272588750906,
                -1.0526204208471472,
                0.42158043571419374,
                -0.59447252225543146,
                -0.11778494795749862,
                0.49249713526357913,
                -1.2358489819353684,
                -0.91892136531897894,
                -0.79501273555812102,
                0.13033789496409268,
                0.88912341866044509,
                0.039477322279302451,
                0.94256435951561091,
                0.10055944087626552,
                0.88754723101477051,
                2.9307681832947443,
                2.607115554004686,
                0.67091748892141034,
                2.0336188548476923,
                1.9201358868887752,
                1.1106814452141103,
                1.4383866069787568,
                1.7778293947071371,
                -0.25211205361772332,
                0.68659604294296361,
                -0.88183750126838412,
                1.9602234718659928,
                -0.93730192123443701,
                -0.12177797814369293,
                2.2905041799970349,
                -0.82615238882706499,
                0.38924729167526617,
                -0.1352385798717641,
                0.8657281302864448,
                -0.29765160964493131,
                -0.33326678642448121,
                0.72240449325060674,
                0.38274745368761393,
                -1.115522217987774,
                -1.0747611009933646,
                -2.8703232987494465,
                -0.54167544148568703,
                -1.6806948766362901,
                -1.9440500271904102,
                0.0069131095877805852,
                -1.0815466059319261,
                -0.98027828413553053,
                -1.6210947296183118,
                -0.26882011347375362,
                -0.76841984079380576,
                1.4404545871584991,
                -0.064271489942976961,
                3.1159374292893367,
                0.59797128795607102,
                -0.60593781536329827,
                0.42332516829797373,
                -0.11880175004354938,
                0.46888634386992023,
                0.93287363449709082,
                0.21027813434540979,
                0.056178455377643544,
                -1.5334935145739539,
                0.094238472030520229,
                -0.0068130416904596605,
                -0.12986934877279269,
                -2.1739845481701132,
                -1.4443106035739433,
                -1.2183236635004815,
                -1.6037619954869839,
                -2.0648808814603195,
                -2.0236781733312297,
                -3.8264565222448677,
                -0.99439857262170028,
                -2.3270531304401363,
                -2.0435617548439908,
                -2.3691401101835456,
                -0.7783827956892666,
                -3.2289481152785049,
                -2.4573392816645816,
                0.37609675705891032,
                1.7132540583453981,
                -1.2021086525506588,
                0.46548573476734362,
                0.51165920063319781,
                -0.47477971433184002,
                -0.55103431434832484,
                0.44293774815973225,
                -1.1508738436438974,
                0.96278530053526723,
                -1.0186923720124783,
                -1.0121943089447136,
                -1.4829351870047323,
                0.2515726614620441,
                -0.29494874334076349,
                -0.68173774714238955,
                -0.082259525350196691,
                -2.0437560307293237,
                -2.2217649164430213,
                -2.5825109302563267,
                -3.0003898573114913,
                -2.5111977794666407,
                -4.4906106379332051,
                -1.5721617342509524,
                -0.15667405618151076,
                0.48929097474901012,
                -0.91638445502314525,
                -0.07739430651298336,
                0.47304462510774387,
                0.34508085514427489,
                0.30858740350648783,
                0.74826104997078768,
                1.0890657476612799,
                -2.131854986124706,
                -1.122963556753102,
                -0.17644703449668281,
                -0.41814105648730493,
                0.042090635121994895,
                -1.5026445901637349,
                -0.54427012790668694,
                -1.9642587308133483,
                -0.95367515503141942,
                -0.98205146500742491,
                -2.5110963435598137,
                -1.7830671575921742,
                -1.8852505136519684,
                -1.5377348134705571,
                -3.5849916048214752,
                -4.8419732934143624,
                -2.7984727231513662,
                -0.81534829074378123,
                -1.1386358164253767,
                -2.0994090216777095,
                -0.83381783894744732,
                -0.28290107805712128,
                -0.59307711300407406,
                -1.27832482931978,
                -0.55511099065306058,
                -0.50133422964248475,
                0.21297677817393346,
                0.54711934392560602,
                0.53785724145118352,
                0.084105272541447618,
                -0.018816996385413218,
                0.33988680344237404,
                -0.7653058143439041,
                2.0116791855155274,
                0.044003258596960623,
                -2.2768304863024644,
                -1.1180507949609708,
                -1.3532782523061804,
                -0.57295770397098145,
                -0.79507911044742474,
                -1.5112659875405521,
                -1.7017158216911203,
                -2.9859903450499519,
                -4.1844975373022626,
                -1.0511710114765116,
                -0.72614126071467755,
                -0.035927035896612142,
                -0.46136549679097805,
                0.49641002389688665,
                -0.58125682592983507,
                -0.84721152090855834,
                0.0081254202302775292,
                -1.2954575619221125,
                0.69158473472492898,
                0.78533593157814852,
                1.1515153944996153,
                0.34158362296837758,
                0.38843830242518096,
                1.0276264802888488,
                -0.3631202122948276,
                -1.9740584014921134,
                -0.27677570703468796,
                -2.7657547384906356,
                -0.37767162666888782,
                0.91791450073211267,
                -0.29782633643446138,
                -0.59215629028605843,
                1.0744593612878819,
                -0.91677504698424428,
                0.19552186289555998,
                -2.9736330249416603,
                -2.5268067298214185,
                -0.52385664744309646,
                -1.3265265462240423,
                0.7412920995649851,
                -1.7906726752534763,
                -0.77672816092175989,
                -1.7006972839544672,
                1.3682162855542483,
                -1.1278792238991902,
                0.64115290513179246,
                -1.5057487714620967,
                0.05390384746258256,
                1.5354992289683802,
                0.48336570702259801,
                -0.49726481511795456,
                -0.4771064519253731,
                0.12233855660079297,
                -0.31488582983055557,
                1.1884611173290245,
                0.52259506590912019,
                0.20822336138614808,
                1.3888813964521858,
                0.79781869679011319,
                0.53686553230781975,
                1.5744706660630807,
                3.5744033559750541,
                3.1047327150687716,
                3.1756354754648517,
                2.0498120572062448,
                1.1654336135556354,
                2.0739814890809054,
                -2.2741868545627675,
                0.79312558713724668,
                -0.67272023945172565,
                0.2490110804838139,
                -1.015993540170506,
                0.56621022625831685,
                -1.4652498089402604,
                -0.84771902923470666,
                0.5244833721688299,
                0.2156427341831558,
                -1.8105565582891945,
                0.032939195486090297,
                -0.11690168290189444,
                -2.2283209840297808,
                0.47036152626235866,
                -0.3881303359343648,
                1.2762519153054799,
                2.2423622225170949,
                -0.87795640580700762,
                1.6107149116625974,
                1.8272554014948554,
                2.4453699504818287,
                2.1689710101340043,
                2.7390641226564361,
                0.48547583691842688,
                -1.9113620357212648,
                -0.62441275746920555,
                0.41777260270276928,
                0.96470296492464602,
                -0.75931042992736109,
                -0.45281644928892517,
                -1.0441720548603404,
                0.98890533960421789,
                0.22880471428558821,
                0.31970761178302254,
                -1.2809718383770023,
                0.07572110887359533,
                1.6565903372110529,
                0.91107406074956154,
                -0.050548131986164153,
                0.57414828425363584,
                -0.0073137769373069188,
                -0.19089007906800573,
                1.2656054008497453,
                2.9389872152815579,
                1.080187306902596,
                1.841460936355138,
                1.4772137339327127,
                2.263455974537377,
                0.8113351082686896,
                2.6518725828523189,
                2.2835840927298352,
                0.2612450277781983,
                2.043508657827684,
                -0.39836229878294371,
                -0.37790228201756637,
                0.7018081232447716,
                0.2764946489391269,
                0.26411948192496248,
                -0.81940485494446325,
                0.09911805204229443,
                0.35555839162024189,
                1.4918826119193696,
                1.4401068427562127,
                0.11860659521244654,
                1.0038523220989428,
                0.21296463025800075,
                -0.37687854725349867,
                -0.14619840523629232,
                -0.83909339259094118,
                0.89298619577944183,
                -1.357666547977803,
                1.6458363991055289,
                -0.97438769240558876,
                1.4465822465015992,
                -0.24486197676531229,
                2.400407830689558,
                -1.6691834125082325,
                0.50500780462210126,
                1.1499235306095779,
                2.8651855056708446,
                0.15793516214332143,
                0.71096785155442221,
                1.2711783427520496,
                -0.19722057924597802,
                -0.11847604233286277,
                1.2767650083228299,
                -0.6286600312017554,
                0.20144179315484112,
                1.5495150547053778,
                0.51325822892680462,
                -0.95236755546754592,
                -0.69395148619949787,
                -1.0216661415426076,
                -0.55806340295048551,
                -0.7113031477171694,
                0.41434937403659483,
                -1.2408101641022806,
                2.1846921032828095,
                0.42467315418561941,
                -1.0527672321335411,
                1.5594224548678308,
                2.4867361552994747,
                -0.056201001491148143,
                -0.052716300468891371,
                0.11290087917997818,
                0.60213090852036033,
                -0.69784633577106303,
                1.7513838160763939,
                2.5327275644576908,
                3.0777041469403859,
                1.8539311612222917,
                2.9973972113808998,
                2.1838216081699473,
                -0.27004789784542949,
                1.049899587025573,
                1.7023252914408515,
                1.8144315935013451,
                1.4941925302455672,
                0.57040645129327894,
                0.90050526363679373,
                0.1051746371660946,
                0.64531239256680739,
                -0.52168372034474675,
                1.3762837981713338,
                -1.1924819238300355,
                -0.18540717819881186,
                -0.85662689372034695,
                0.54601274688473378,
                0.77686209952152518,
                -0.22835823995284557,
                -0.59238103246969709,
                -0.71651078436504778,
                -0.32830384028441861,
                1.1920761518369813,
                1.4872238080162208,
                0.17842800165869033,
                2.8383412445384502,
                3.5156690953779415,
                1.5285042136640936,
                1.0532627569748851,
                0.69511400373031795,
                0.073091850670882461,
                1.5208826481831261,
                0.53071684231687544,
                1.3075994996132756,
                2.8367060548544298,
                0.28331387083149695,
                -0.23644349831262579,
                -1.7092782679350584,
                0.021930801015922728,
                -0.46255408328974618,
                -0.97714595995793851,
                -1.5316903805099555,
                -0.20425405421476545,
                1.5003232899899017,
                1.3131029837982815,
                0.80141528734534218,
                0.33351021138933001,
                -0.92964194389949628,
                1.5185383595631687,
                -0.35142658569173468,
                -0.80355329407108012,
                1.9338401208877594,
                -0.87998638197503376,
                1.5256153053633219,
                2.0871754401320062,
                0.75620693038934106,
                -0.65220018169767269,
                -0.37804557308957715,
                -1.4437423546454156,
                -0.316163917334087,
                0.38524910616384794,
                -1.4077075465009343,
                0.90803392255964777,
                0.50697604574804445,
                -0.94927504622881853,
                -0.72408751216697476,
                0.081792139265016439,
                -0.5075790081879521,
                0.3557853216826507,
                0.63911709640051428,
                -0.4856518870940138,
                1.1226643214268794,
                0.75182421035199254,
                0.96586832416173551,
                0.37931885985360336,
                2.536537967159612,
                -0.46401418168013453,
                0.76332449309384576,
                0.14816384439854383,
                3.3124869802928862,
                0.58397967898712366,
                0.049064850730630882,
                0.0046957830293919882,
                0.52900644388237339,
                -0.8739155737280655,
                -1.0031756358503703,
                -1.4774394752234565,
                0.020838044327826669,
                -2.4319749973747373,
                -2.2893429758283812,
                -0.97946898711640529,
                -0.86013643585427813,
                0.59128888416674708,
                -0.6567233549020679,
                0.29814800234714328,
                1.7525861844752897,
                -0.8450817220418132,
                2.3066639501278976,
                0.84063479141502906,
                -0.11224694472683135,
                -1.143178992310915,
                -0.47469302890400877,
                -0.56486942415906238,
                -3.0720524275421104,
                0.76765521795660807,
                1.943779795753473,
                1.142418041900755,
                1.6984368049647678,
                -1.3657360737476854,
                -0.008566595475522621,
                -0.33831708432224811,
                0.61785305399338497,
                -0.16641289889672986,
                1.3181264645222379,
                -2.3009101718022924,
                -0.24341079134230298,
                0.54065519132987572,
                -0.62921922964839627,
                -0.062853687946846759,
                0.026087281682500803,
                -0.33346340225917231,
                -0.38328095401384754,
                -0.079172664080788518,
                0.50612131374357849,
                2.5798998531535364,
                1.0165045045119836,
                -1.5560934084468012,
                0.010870720546566147,
                0.90048084320645383,
                1.01259642141263,
                -0.2503349471063927,
                0.75622148813003409,
                -1.3477795052124162,
                1.0025386563700114,
                -0.62176261170373692,
                0.6686463711450551,
                0.30588883388660465,
                0.69533056390813752,
                -1.1238352811181223,
                -1.313012422523762,
                0.68525157876237341,
                3.0830771257682001,
                -0.50149992286828649,
                -0.023994051905436204,
                -0.38157777995802139,
                0.97650947112632436,
                0.085422911458316333,
                -0.98973342748890902,
                -0.73196828297262828,
                0.66875177514969975,
                0.4217063423457077,
                -1.2273078688101766,
                -0.6398138857126221,
                -2.4047534124011265,
                -1.9005356589539324,
                -1.710731754948698,
                0.18798781262273936,
                -0.87102790526980844,
                -0.42902589237461752,
                0.81382988613372342,
                -1.5035270476546898,
                -0.53056951944524988,
                -0.48471668095743098,
                0.38304703841487447,
                0.10594958324050753,
                -0.84443453395023882,
                -0.70456979719815149,
                2.1325864599615256,
                0.10772800148573181,
                0.12202315175460471,
                1.9049763578347536,
                -0.017646182169077373,
                -0.0054079253196254746,
                -1.4499923663246359,
                -2.3692015480771249,
                0.28129309737733094,
                0.02111319746499276,
                -0.75914952094381449,
                2.4947405886268741,
                -1.0640348333528489,
                0.81481774808623597,
                -0.32639752815897966,
                -1.8554684319434869,
                -2.4555328849727234,
                -1.3835433044138379,
                -1.1496514304062548,
                -1.7408442717884363,
                -0.88771686973754815,
                -1.808426209931425,
                -0.59102936192930222,
                -1.0259800911737924,
                -1.2359880797234288,
                -1.2232747652105518,
                -0.50824080854389653,
                1.4779593897875145,
                -1.6423883811411297,
                0.46553790696352454,
                -0.83573224925765421,
                0.96320856938053123,
                0.68000889069270454,
                1.1121037052412543,
                0.28324669434023436,
                -1.6691262725013987,
                0.50334002332041317,
                0.84791248765421801,
                -1.7161831027931413,
                0.58108006628345032,
                -1.2763026952932264,
                -1.9531223094192438,
                -0.18731312902798414,
                0.17000588937916816,
                -0.018751320351639941,
                0.17818853676005902,
                -0.29762763182520202,
                -0.39740254739649111,
                -0.57253709336576464,
                -0.15756096118259719,
                -0.10406625095626838,
                -1.1416788767724608,
                0.30761579577683418,
                -0.54083589182577019,
                -0.80773018025565979,
                0.57546330710496407,
                0.33855663881909098,
                0.26305183789076964,
                -0.4732497378867645,
                0.39707278001358565,
                0.14565317382120452,
                -0.10764814863849799,
                -1.1981675411869008,
                -1.3017911082433815,
                -0.49681397209099143,
                0.20763723630700967,
                0.40077635254786759,
                2.2439736280158242,
                -0.147069816303564,
                -0.82979329714738059,
                -1.1384041263093505,
                -0.2746252982706272,
                1.656527287304155,
                1.0414879425722405,
                -2.0709426436965432,
                -1.4938456152075719,
                -3.8736768783699835,
                -1.3542629036226905,
                -2.4375127014623357,
                -1.8183879412621577,
                -0.8435246932520224,
                -1.6847147812258916,
                -1.0164374749313081,
                -0.20016338664298258,
                -2.0901615536176132,
                -1.7037007601101084,
                -2.6151586707752634,
                -0.65406383360110498,
                -1.3492378670456218,
                -1.3094253825063418,
                -0.82251780281079612,
                -0.084118632545651523,
                -1.6715598878648232,
                1.015307739234629,
                0.15941532357736776,
                1.6606439784323377,
                -0.95907348322291119,
                0.31759952872399988,
                -0.2580616255673453,
                0.57178518019997726,
                0.51293737828560748,
                -0.70726557436520043,
                0.033135736242482942,
                -0.41108856261216042,
                -0.72464314519533279,
                -2.2192958444992841,
                -0.51824991644896512,
                -1.7339807569333048,
                -1.0466798670060133,
                -1.8640065867875528,
                -2.9727354124876157,
                -2.0447085782045629,
                -1.7791314165448886,
                -2.0863155380912515,
                -2.3874170655851579,
                -0.32997326894022039,
                -1.5255028013715686,
                -1.5601306175520722,
                -0.31408088180448274,
                0.31060877619828076,
                1.0239080180181579,
                0.66090003354880988,
                0.066473392553488359,
                -0.93248922573693505,
                -2.6696594773630342,
                -1.1366573097268351,
                0.81396058964268425,
                1.9724524533128496,
                1.4996278933554985,
                2.0610594322201332,
                1.3286318598968592,
                -0.86350125802751798,
                -2.7257034802413482,
                0.37243536904604924,
                -1.224801621257765,
                -1.3648119050723886,
                -0.26718422358695887,
                0.17339819238527601,
                -0.56970341707376537,
                -0.98266528529880504,
                0.83219074651963965,
                1.2198014504095387,
                -0.32990226971673253,
                -0.59939316554898681,
                -0.12019120120679146,
                1.2156945363612799,
                -1.2795595892372396,
                -0.16606342020695786,
                0.88227149293069462,
                0.089240779681571861,
                0.64391866700699785,
                2.5357345662714601
            ],
            "3": [
                2.8040561416504466,
                1.329024481865656,
                -2.2099238454280918,
                0.16293170169594573,
                -0.68186185147278788,
                -1.2602955155428195,
                1.8033795358332039,
                -0.59164518317803383,
                -0.37398562227261634,
                -0.73530686903691145,
                -0.30303262194956315,
                0.24457838563700551,
                -0.35068992465113036,
                -0.50081602434737893,
                0.63951220900193739,
                -0.12941380788715651,
                -0.20432490253903168,
                0.089182399273548693,
                -0.53037009723078266,
                -0.72852812151467083,
                -0.012693449212652329,
                0.76171053400056554,
                0.33209838664091335,
                -0.82284110902878116,
                0.44232473490963958,
                -1.0016369156138218,
                -0.24911931790099462,
                -1.5657139741199577,
                -2.0013856480395598,
                -0.29270832861905577,
                -1.3239003261001414,
                -2.1034442716571013,
                -0.76653728764947948,
                0.72297214538240173,
                0.51123858963099289,
                -2.73163334788654,
                1.0743180488854658,
                0.73753812089073978,
                0.56317861897347044,
                -0.46246843795901782,
                -0.4675110758959739,
                -0.44290938269839103,
                0.2146523352270728,
                -1.5762750457097674,
                -0.20829829635734526,
                0.45259019417961616,
                1.1870782425837745,
                0.24698309549820391,
                0.16462633667254906,
                -0.57170043958042349,
                0.426416212304638,
                -0.18795859308987659,
                0.95802975339493812,
                -0.26977572238594649,
                0.99843094195899207,
                0.28860624485466374,
                0.67058450659710467,
                0.18647611968273048,
                0.4671765502343615,
                -0.038881365918520309,
                -0.32855754855244551,
                -0.34679770309291474,
                -1.4320110232727195,
                0.42147389488274928,
                0.30468457796488974,
                -0.27820694134321028,
                -0.41302786372506683,
                0.36910662841254788,
                -0.72573360380133589,
                0.53227767551600991,
                -1.153375711697167,
                1.2193164092550288,
                0.89174984147203584,
                -2.195107764064685,
                -0.34379362680190612,
                0.043236968248950514,
                0.43106009403352818,
                -0.16724603357145629,
                0.29635838466795433,
                -0.39811676313126032,
                0.034266756411096756,
                0.7050413656570359,
                0.13767554605280902,
                -1.6687528442157027,
                0.14804736482700948,
                0.19157037856622017,
                0.2109751606385987,
                0.29612405860383778,
                -0.3236649360818592,
                0.50931791552221217,
                -0.34696625435255907,
                -0.51282713661701007,
                -0.56644021084413443,
                0.32898879182640017,
                0.78780282101205734,
                -0.71221969001617647,
                -1.248846478931166,
                1.0858598256821275,
                0.89757452078095856,
                -0.75290620142933384,
                0.14551731303841131,
                1.0949173170056912,
                1.4979191872696422,
                0.075100385775682385,
                0.65074699955170268,
                -0.42991847265877003,
                -0.15572638448362752,
                0.28990593119459973,
                1.1746620269307591,
                0.21143870785974331,
                -1.1912319597054748,
                0.92417753146810533,
                0.35947080115268459,
                0.33495995572314047,
                -0.68497405829816371,
                0.12259276612322896,
                1.463820814211884,
                1.0241357879636885,
                -0.3448057620403126,
                -0.59971176653395919,
                0.65058719536144516,
                -1.0701921336473876,
                0.63342126470415172,
                -0.58342291889670483,
                -0.091899682594202795,
                -1.2182290168762715,
                -0.44585783460970002,
                -0.031758067542205656,
                -0.0082742431135274241,
                2.2791729425466252,
                1.9179329706429757,
                1.0313406105291427,
                0.55375089681953782,
                -0.4273947361049063,
                -0.1592222873337992,
                -0.2721514681637987,
                -0.71646769838267044,
                0.64917068663747035,
                -0.27096851681881495,
                -1.3809213665402638,
                0.071786480843492789,
                -0.98793699240288357,
                -1.973272503415944,
                -2.0562395097356907,
                0.061098469095505023,
                0.54499256486836289,
                -2.0203742456091716,
                -0.73260432653450613,
                -1.6838955727189562,
                -0.4355993872481087,
                -2.4953426134029422,
                -1.1642466091574912,
                0.79303292868634423,
                0.48472555479485163,
                -1.3003132736963678,
                0.26951729506650191,
                0.54135408118115436,
                1.1878033108661408,
                1.2355979627808815,
                0.85232523636760826,
                1.2672661419336324,
                -1.0315641254859815,
                0.78469679339492482,
                0.052639050442619316,
                0.44170123072232126,
                1.0890661166789342,
                1.2388796873134331,
                -0.74630757309861961,
                0.83573026926812954,
                0.86592522198301003,
                0.40007476284123639,
                -0.10475344926081634,
                -0.73621916412174282,
                -1.8424672859105771,
                -1.2940097228214653,
                1.1898962418154424,
                -1.3677847381994337,
                0.16789605401418367,
                -0.38894015484606087,
                1.074611655655989,
                0.11582265876253076,
                0.84686877163786511,
                1.9543943539954931,
                -0.74396583837460117,
                0.48548357629677019,
                -0.29970615364962783,
                1.1429004226785247,
                2.0788642434000173,
                -0.073418167432806811,
                1.4716458687415475,
                -1.6019460058494062,
                0.61758078444404307,
                2.2826554601482303,
                -0.49910724707122389,
                1.1303238529904704,
                0.27784852316499675,
                0.29244181115373036,
                -0.41318345562268449,
                0.50960554392078128,
                1.4628584875515105,
                -2.5235491152316376,
                -1.3089835033017556,
                -0.25719118974345406,
                -0.40521182904553887,
                0.85640761714555058,
                0.16171121608720798,
                1.1642919995784418,
                -0.25144922834919037,
                -1.0148287690922178,
                -0.30542729320421375,
                -0.34990990725611509,
                0.72151803271949644,
                -0.42348036195954492,
                1.2445087029860382,
                1.5239410605632988,
                0.84302629245732064,
                -0.37896713957693801,
                -1.0287683116809696,
                -2.3909232372134022,
                -0.66641423598209237,
                -0.21609941653418038,
                1.6136908393582643,
                0.34218794363695837,
                0.75075116143490883,
                -0.39900490818495354,
                -0.39680288324458757,
                0.0058824178087667168,
                1.4054225180530195,
                -2.2143504398873546,
                -0.25539234361212748,
                -1.2743961285163874,
                0.79920511338047562,
                -0.70676257983061241,
                -0.84349239266574172,
                -0.3592725581334465,
                -0.23017678100824909,
                -0.24573051952698674,
                -0.2343563635030631,
                0.5221960955879914,
                0.91321703278501254,
                -0.0062611078750167866,
                1.5804298634920133,
                1.4258308422575969,
                1.3769561672015094,
                0.87956066856202031,
                1.7587922930567215,
                0.055472762961838687,
                0.77803163985391421,
                -0.93584765480288323,
                0.17032537265998848,
                -0.18036806061434066,
                -0.15514898609856406,
                -0.12470089140089669,
                0.81732901963116322,
                -1.0473686536607687,
                -0.32172147093260334,
                -0.54146178367574016,
                -0.1514324179816183,
                -0.56146599550378018,
                0.80589703410009073,
                1.5104813692731656,
                0.97477738677169867,
                0.4280043578941804,
                0.81061384442396911,
                -0.13310448497843844,
                -1.2893708651794575,
                -0.19842375338347112,
                -0.22229962583584342,
                0.39025017527604594,
                -0.32889957927414842,
                0.11073861792513055,
                -1.5674161718770832,
                -0.84378392724813023,
                -2.0638459194402916,
                0.17957308920205692,
                -0.72043282192057001,
                1.3777968255963395,
                0.46615187909171113,
                -0.59436169595566735,
                0.65775127785818577,
                0.077763119156795291,
                -0.32367625992476051,
                -0.3159573170518013,
                -0.49016013958169041,
                0.54153517907246773,
                0.29414757994947027,
                -0.037894085839351721,
                1.0575631651739748,
                1.4926075262514344,
                -0.63229476759920011,
                -1.9386009444656334,
                -1.9759519147551559,
                -1.5655763118886317,
                -2.3229087076984163,
                0.58624270373342968,
                1.055622756539097,
                3.4993724387921898,
                0.40315865910685172,
                -0.18440772005662459,
